solver_type L2R_L2LOSS_SVC_DUAL
nr_class 2
label 1 -1
nr_feature 55
bias -1
w
-0.3867224145203005 
-2.954332971516339 
6.17751377000079 
-0.003851091388868806 
-1.392994989492049 
1.119040402299371 
-0.007985175340299248 
-0.07616424942604305 
-0.1809406363193352 
-0.102945285798321 
-0.1111501825095223 
-0.08317346813073098 
-0.3054331779755435 
-0.1355706776109927 
-0.1466312897268678 
-0.2195759296130173 
-0.03565858841457024 
-0.249487425922395 
-0.2171355803287078 
-0.01215972075270889 
-0.2003175635343805 
0.07209441851980597 
-0.04540498572261482 
-0.1223277008279603 
-0.04068404533467844 
-0.1261366918933419 
-0.008855208590424265 
-0.07436638990343873 
0.03843257475193645 
-0.03337545703908484 
0.2895591631290444 
-0.04648901679364716 
0.3754405466179767 
-0.05846305825494272 
0.450733575287823 
-0.05445842805630022 
0.313693984270977 
0.1369559833715905 
0.2152646569858434 
-0.09387723474950654 
-0.3177121960191422 
1.252018840178211 
1.132193955056103 
0.7013774164130355 
-0.5638877477447786 
0.1577436043769959 
-0.1794230215985277 
0.3013087658878267 
-0.09902285420116061 
2.115705762156488 
1.305453419671167 
1.527370449375921 
0.9499648466135493 
0.5617772598641587 
-0.6229647354696061 
